{
    "model_arch": {
        "dense_E1": {
            "weights": [
                -2.0490310192108154,
                -1.9521182775497437,
                -3.2779791355133057,
                -1.7959835529327393,
                -2.4425344467163086,
                -2.4185447692871094,
                -1.6630393266677856,
                -0.6122798919677734,
                1.9010179042816162,
                -1.695304036140442,
                -0.10890769958496094,
                0.9584953188896179,
                -1.7277532815933228,
                1.4263489246368408,
                2.9057438373565674,
                -1.401292324066162,
                0.9718848466873169,
                -0.2977696657180786,
                -1.4201080799102783,
                2.5289597511291504,
                0.6550475358963013,
                -1.217969536781311,
                0.6854053735733032,
                2.306565523147583,
                -0.4810582995414734,
                -0.11886335164308548,
                -0.3044475018978119,
                -1.2399996519088745,
                0.31297430396080017,
                0.3700028955936432,
                -0.4701673984527588,
                1.1376240253448486,
                1.391108751296997
            ],
            "bias": 0.0
        },
        "dense_E2": {
            "weights": [
                0.003906809724867344,
                0.5601664781570435,
                0.04166775569319725,
                0.005786756984889507,
                0.003549296874552965,
                0.0035242256708443165,
                1.3954286575317383,
                0.0035776179283857346,
                0.003552734386175871,
                0.4336051046848297,
                0.004650448448956013,
                0.6732848882675171,
                1.4229875802993774,
                0.0031074779108166695,
                0.003083247924223542,
                0.0032078372314572334,
                0.003240517107769847,
                0.0032164817675948143,
                0.003474275581538677,
                0.0042467485181987286,
                0.24582378566265106,
                -0.0,
                0.0029978419188410044,
                0.003207998350262642,
                0.003207998350262642,
                0.003058486618101597,
                0.003474439727142453,
                0.003474439727142453,
                0.003233968047425151,
                0.24492384493350983,
                0.24489343166351318
            ],
            "bias": 0.0
        },
        "dense_output": {
            "weights": [
                14.413850784301758,
                15.438364028930664
            ],
            "bias": 0.0
        }
    }
}