{
    "model_arch": {
        "dense_E1": {
            "weights": [
                -3.1640493869781494,
                -2.711632013320923,
                -3.0701169967651367,
                -2.3474044799804688,
                -2.4071619510650635,
                -2.438777208328247,
                -1.9397319555282593,
                -0.871792733669281,
                1.6693201065063477,
                -1.3697237968444824,
                -1.009598970413208,
                1.0295321941375732,
                -1.6709052324295044,
                0.9131699204444885,
                0.7686548233032227,
                -1.0252968072891235,
                1.049964427947998,
                1.0152535438537598,
                0.0972471758723259,
                2.6419003009796143,
                1.3994746208190918,
                -0.8104655146598816,
                1.2891504764556885,
                1.682947039604187,
                -2.1795926094055176,
                0.5222494006156921,
                0.8145410418510437,
                -1.7108327150344849,
                0.24796654284000397,
                0.31840869784355164,
                -1.5270602703094482,
                1.0926437377929688,
                1.4530084133148193
            ],
            "bias": 0.0
        },
        "dense_E2": {
            "weights": [
                0.024223774671554565,
                -0.0,
                -0.0,
                -0.0,
                -0.0,
                -0.0,
                0.6562594771385193,
                -0.0,
                -0.0,
                0.47924500703811646,
                -0.0,
                0.9148075580596924,
                0.05696633830666542,
                -0.0,
                -0.0,
                -0.0,
                -0.0,
                -0.0,
                -0.0,
                -0.0,
                0.2575729489326477,
                -0.0,
                -0.0,
                -0.0,
                -0.0,
                -0.0,
                -0.0,
                -0.0,
                -0.0,
                0.25862911343574524,
                0.2588491439819336
            ],
            "bias": 0.0
        },
        "dense_output": {
            "weights": [
                14.507550239562988,
                14.254486083984375
            ],
            "bias": 0.0
        }
    }
}