{
    "model_arch": {
        "dense_E1": {
            "weights": [
                -1.864487886428833,
                -1.8144503831863403,
                -2.9784963130950928,
                -1.3682554960250854,
                -2.3889036178588867,
                -1.4263795614242554,
                -1.4288747310638428,
                -0.33968478441238403,
                1.8415967226028442,
                -1.0163553953170776,
                -0.2035595178604126,
                1.2792116403579712,
                -1.2940279245376587,
                1.098731517791748,
                2.0238358974456787,
                -0.9791767001152039,
                0.7574124336242676,
                -0.3364357054233551,
                -0.8995010852813721,
                1.8005861043930054,
                -0.030749348923563957,
                -1.023515224456787,
                0.8155181407928467,
                2.1274335384368896,
                -0.6699343919754028,
                0.0017574448138475418,
                -0.32489725947380066,
                -1.0468785762786865,
                0.03751629963517189,
                0.7169701457023621,
                -0.7273536324501038,
                0.7604923248291016,
                1.2274497747421265
            ],
            "bias": 0.0
        },
        "dense_E2": {
            "weights": [
                0.002586622256785631,
                0.5894849300384521,
                0.09775234758853912,
                0.006162895355373621,
                0.002624488901346922,
                0.002351471921429038,
                1.1138076782226562,
                0.00270362407900393,
                0.002433603862300515,
                0.4608399569988251,
                0.0022673478815704584,
                0.42796143889427185,
                1.3120979070663452,
                0.0027878298424184322,
                0.002645759843289852,
                0.003098616376519203,
                0.003121830290183425,
                0.00297964783385396,
                0.0038216125685721636,
                0.0023724844213575125,
                0.20033055543899536,
                -0.0,
                0.0022701588459312916,
                0.0030980887822806835,
                0.0030980887822806835,
                0.0024246759712696075,
                0.003821045160293579,
                0.003821045160293579,
                0.0022762257140129805,
                0.19912494719028473,
                0.19906122982501984
            ],
            "bias": 0.0
        },
        "dense_output": {
            "weights": [
                14.521367073059082,
                15.878182411193848
            ],
            "bias": 0.0
        }
    }
}