{
    "model_arch": {
        "dense_E1": {
            "weights": [
                -1.956944465637207,
                -1.8260318040847778,
                -2.3980066776275635,
                -1.5578904151916504,
                -1.6400119066238403,
                -1.5101299285888672,
                -1.5712140798568726,
                -0.7908807396888733,
                2.8350417613983154,
                -0.9796777963638306,
                -1.0736786127090454,
                1.680795431137085,
                -2.0886025428771973,
                1.966878890991211,
                -0.04804379120469093,
                -0.7168185114860535,
                0.41567012667655945,
                0.8265804052352905,
                -0.35302457213401794,
                1.8346147537231445,
                -0.5368181467056274,
                -0.3535056710243225,
                1.1959073543548584,
                0.8061009049415588,
                -1.117118239402771,
                0.4068391025066376,
                0.1868448257446289,
                -1.408764123916626,
                -0.38740068674087524,
                0.03431231528520584,
                -1.1553972959518433,
                0.8943784236907959,
                1.2536921501159668
            ],
            "bias": 0.0
        },
        "dense_E2": {
            "weights": [
                0.002000812441110611,
                0.4048171937465668,
                0.1953490525484085,
                0.09669498354196548,
                -0.0,
                -0.0,
                0.5465725660324097,
                0.015855412930250168,
                0.0024649070110172033,
                0.29619476199150085,
                -0.0,
                0.556439220905304,
                1.0487778186798096,
                -0.0,
                -0.0,
                -0.0,
                0.002243662951514125,
                0.0017757570603862405,
                0.0009117511799558997,
                -0.0,
                0.19481968879699707,
                -0.0,
                -0.0,
                -0.0,
                -0.0,
                0.0016441966872662306,
                0.0009125382057391107,
                0.0009125382057391107,
                -0.0,
                0.19293555617332458,
                0.1926872432231903
            ],
            "bias": 0.0
        },
        "dense_output": {
            "weights": [
                15.026931762695312,
                14.368959426879883
            ],
            "bias": 0.0
        }
    }
}