{
    "model_arch": {
        "dense_E1": {
            "weights": [
                -2.1967666149139404,
                -2.025066375732422,
                -2.766573190689087,
                -1.5953878164291382,
                -2.36830472946167,
                -2.0300133228302,
                -1.0685598850250244,
                -1.2243683338165283,
                2.408111333847046,
                -1.106699824333191,
                -0.21472741663455963,
                1.2253103256225586,
                -1.4041177034378052,
                1.8926922082901,
                -0.058168262243270874,
                -0.40725791454315186,
                -0.17498774826526642,
                0.6037181615829468,
                0.08234278857707977,
                2.0639243125915527,
                -0.35998016595840454,
                -0.40584999322891235,
                0.7202368974685669,
                0.5754205584526062,
                -1.5078604221343994,
                0.4799318313598633,
                0.18215066194534302,
                -0.8177715539932251,
                -0.3735937774181366,
                -0.2711399495601654,
                -1.0003395080566406,
                0.8421809673309326,
                1.3387869596481323
            ],
            "bias": 0.0
        },
        "dense_E2": {
            "weights": [
                0.09621140360832214,
                0.0025921552442014217,
                0.00876281876116991,
                0.031248444691300392,
                0.0014017391949892044,
                0.0014413906028494239,
                0.7431912422180176,
                0.0015690579311922193,
                0.0016079609049484134,
                0.5374961495399475,
                0.0006901321467012167,
                0.5461705923080444,
                0.7619743943214417,
                -0.0,
                -0.0,
                -0.0,
                -0.0,
                -0.0,
                -0.0,
                -0.0,
                0.1413271725177765,
                0.0002791083534248173,
                -0.0,
                -0.0,
                -0.0,
                -0.0,
                -0.0,
                -0.0,
                -0.0,
                0.14075502753257751,
                0.14086852967739105
            ],
            "bias": 0.0
        },
        "dense_output": {
            "weights": [
                14.062904357910156,
                15.006985664367676
            ],
            "bias": 0.0
        }
    }
}