{
    "model_arch": {
        "dense_E1": {
            "weights": [
                -1.794838309288025,
                -1.7451096773147583,
                -2.950052261352539,
                -1.3994768857955933,
                -1.9642372131347656,
                -1.1983569860458374,
                -0.8688954710960388,
                -0.2873966693878174,
                2.0970983505249023,
                -1.0484514236450195,
                -0.22599804401397705,
                0.8715478777885437,
                -0.8407894968986511,
                0.747352123260498,
                1.770751714706421,
                -1.6611040830612183,
                0.07822433114051819,
                0.28708744049072266,
                -1.2748056650161743,
                2.1318321228027344,
                -0.10657836496829987,
                -0.6789796352386475,
                0.9083285927772522,
                1.607972502708435,
                -0.45707210898399353,
                0.30950862169265747,
                0.08250420540571213,
                -0.8843082189559937,
                0.5242103338241577,
                0.3261773884296417,
                -0.6305647492408752,
                0.729475736618042,
                0.27657508850097656
            ],
            "bias": 0.0
        },
        "dense_E2": {
            "weights": [
                0.001786505337804556,
                0.44359785318374634,
                0.07372190803289413,
                0.014660783112049103,
                0.001298805931583047,
                0.0011952536879107356,
                1.0804507732391357,
                0.0013994465116411448,
                0.001297113369219005,
                0.4945635199546814,
                0.0014922160189598799,
                0.4722633361816406,
                1.2472668886184692,
                0.0005992433289065957,
                0.000515997875481844,
                0.0006398645928129554,
                0.0009170683333650231,
                0.0008339533815160394,
                0.0009981245966628194,
                -0.0,
                0.2021731734275818,
                0.00092827167827636,
                0.0003690498706419021,
                0.0006398795521818101,
                0.0006398795521818101,
                0.0006717153592035174,
                0.0009981411276385188,
                0.0009981411276385188,
                -0.0,
                0.20074720680713654,
                0.20064564049243927
            ],
            "bias": 0.0
        },
        "dense_output": {
            "weights": [
                15.138269424438477,
                14.272740364074707
            ],
            "bias": 0.0
        }
    }
}