{
    "model_arch": {
        "dense_E1": {
            "weights": [
                -1.4706798791885376,
                -1.3411707878112793,
                -5.9910736083984375,
                -2.8761746883392334,
                -2.956364631652832,
                -1.9694206714630127,
                -0.423561155796051,
                -2.418273448944092,
                2.342132568359375,
                0.9099646806716919,
                -1.125797986984253,
                3.1583380699157715,
                -0.6432030200958252,
                4.632699012756348,
                0.767207682132721,
                0.03777752071619034,
                -0.8096507787704468,
                1.0591062307357788,
                1.1015371084213257,
                2.863335371017456,
                -1.1202298402786255,
                0.13385580480098724,
                1.5452814102172852,
                0.3952871859073639,
                -3.887701988220215,
                0.6625704169273376,
                0.424119770526886,
                -1.6502504348754883,
                -0.773075520992279,
                -1.4140859842300415,
                -4.705870151519775,
                1.1997216939926147,
                1.998268485069275
            ],
            "bias": 0.0
        },
        "dense_E2": {
            "weights": [
                0.013516368344426155,
                2.2364118099212646,
                2.3357350826263428,
                1.3133491277694702,
                0.0073856692761182785,
                0.018358051776885986,
                2.1699929237365723,
                0.007263409439474344,
                0.007425343617796898,
                0.6146748065948486,
                0.060575708746910095,
                0.651221513748169,
                0.053828876465559006,
                0.005717659369111061,
                0.006981386803090572,
                0.0076151322573423386,
                -0.0,
                -0.0,
                0.002305111847817898,
                0.019827893003821373,
                0.6007365584373474,
                0.006361656356602907,
                0.0025913394056260586,
                0.007601955905556679,
                0.007601955905556679,
                -0.0,
                0.00229976000264287,
                0.00229976000264287,
                0.019739355891942978,
                0.5951120257377625,
                0.5951054692268372
            ],
            "bias": 0.0
        },
        "dense_output": {
            "weights": [
                17.741254806518555,
                17.695566177368164
            ],
            "bias": 0.0
        }
    }
}