{
    "model_arch": {
        "dense_E1": {
            "weights": [
                -1.739000678062439,
                -1.7006547451019287,
                -1.9969086647033691,
                -1.3925787210464478,
                -1.8549124002456665,
                -1.862959384918213,
                -1.2648398876190186,
                -0.9092010259628296,
                1.6468528509140015,
                -1.252745270729065,
                -0.3289151191711426,
                0.2596890330314636,
                -0.6855610013008118,
                0.9397361278533936,
                1.72089421749115,
                -0.837665855884552,
                0.5140845775604248,
                0.0720524713397026,
                -0.6594615578651428,
                1.822304368019104,
                0.5919002294540405,
                -0.6357852816581726,
                0.5740496516227722,
                1.6349653005599976,
                -0.8026062846183777,
                0.17135398089885712,
                -0.2480146884918213,
                -0.9654204249382019,
                -0.12224248051643372,
                0.04520401358604431,
                -1.0057889223098755,
                0.35565587878227234,
                1.0777232646942139
            ],
            "bias": 0.0
        },
        "dense_E2": {
            "weights": [
                0.002850716235116124,
                0.2581821382045746,
                0.030151428654789925,
                0.009663796052336693,
                0.0033787479624152184,
                0.0032203069422394037,
                1.2054181098937988,
                0.0034423721954226494,
                0.0033252236898988485,
                0.5349374413490295,
                0.0029144103173166513,
                0.5422890782356262,
                1.0860583782196045,
                0.0039047820027917624,
                0.0037608412094414234,
                0.003939203917980194,
                0.004335451405495405,
                0.004192258697003126,
                0.004655062220990658,
                0.002258823486045003,
                0.19819006323814392,
                -0.0,
                0.0034995556343346834,
                0.0039401487447321415,
                0.0039401487447321415,
                0.0038087917491793633,
                0.004656015895307064,
                0.004656015895307064,
                0.002151916967704892,
                0.1963449865579605,
                0.1962055116891861
            ],
            "bias": 0.0
        },
        "dense_output": {
            "weights": [
                14.815240859985352,
                14.629599571228027
            ],
            "bias": 0.0
        }
    }
}