{
    "model_arch": {
        "dense_E1": {
            "weights": [
                -1.7461481094360352,
                -1.6842219829559326,
                -9.130646705627441,
                -3.098078727722168,
                -4.527141571044922,
                -5.319324970245361,
                -7.263461589813232,
                -7.100785732269287,
                7.068746089935303,
                -4.776037216186523,
                -4.681539058685303,
                4.794320583343506,
                -6.4474334716796875,
                4.529447078704834,
                -0.5759243369102478,
                -3.3625247478485107,
                -0.47829437255859375,
                2.388258218765259,
                0.3167063593864441,
                5.632312774658203,
                0.8783305883407593,
                -0.5141608715057373,
                1.9244519472122192,
                -0.8372628688812256,
                -5.697949409484863,
                2.335435390472412,
                2.588967800140381,
                -4.250793933868408,
                0.7014378905296326,
                0.7293669581413269,
                -1.056175708770752,
                1.8736300468444824,
                1.254294753074646
            ],
            "bias": 0.0
        },
        "dense_E2": {
            "weights": [
                0.0016449708491563797,
                2.0952019691467285,
                0.7780995965003967,
                1.1933528184890747,
                0.0008293626015074551,
                0.0005496405065059662,
                2.3515536785125732,
                0.7017155885696411,
                0.13470344245433807,
                0.2298687994480133,
                0.10918370634317398,
                2.6372835636138916,
                3.595144033432007,
                -0.0,
                -0.0,
                -0.0,
                0.004643532447516918,
                0.0019721209537237883,
                -0.0,
                0.002900906838476658,
                0.9871581196784973,
                -0.0,
                -0.0,
                -0.0,
                -0.0,
                0.14617964625358582,
                -0.0,
                -0.0,
                0.002115002367645502,
                0.9868208765983582,
                0.9868113994598389
            ],
            "bias": 0.0
        },
        "dense_output": {
            "weights": [
                15.014439582824707,
                16.532306671142578
            ],
            "bias": 0.0
        }
    }
}