{
    "model_arch": {
        "dense_E1": {
            "weights": [
                -1.4518877267837524,
                -1.3415489196777344,
                -6.006856441497803,
                -3.103670120239258,
                -2.3793764114379883,
                -2.3201215267181396,
                -0.562351644039154,
                -1.695860505104065,
                1.7712318897247314,
                0.22978822886943817,
                0.21925093233585358,
                2.561769962310791,
                -0.3670019507408142,
                4.810919761657715,
                1.521014928817749,
                -0.0027779261581599712,
                -0.6941614151000977,
                0.29452601075172424,
                1.3586525917053223,
                2.5038740634918213,
                -0.9143680930137634,
                0.5286250114440918,
                1.0561398267745972,
                -1.0652010440826416,
                -3.285909652709961,
                0.61896812915802,
                0.8004752397537231,
                -1.9954177141189575,
                -1.3210781812667847,
                -0.9074651002883911,
                -3.8770689964294434,
                1.286861538887024,
                0.9590401649475098
            ],
            "bias": 0.0
        },
        "dense_E2": {
            "weights": [
                0.007539985701441765,
                2.4022607803344727,
                2.217101812362671,
                0.9886374473571777,
                0.0010176239302381873,
                0.010366115719079971,
                2.6142733097076416,
                0.001159911509603262,
                0.0017553704092279077,
                0.6759824156761169,
                0.012384386733174324,
                0.8956140875816345,
                0.2448011040687561,
                0.0061776950024068356,
                0.010284576565027237,
                0.008711187168955803,
                -0.0,
                0.0010380293242633343,
                0.008330709300935268,
                0.012024644762277603,
                0.6125578880310059,
                0.001323452452197671,
                0.0077867708168923855,
                0.008649545721709728,
                0.008649545721709728,
                -0.0,
                0.008271162398159504,
                0.008271162398159504,
                0.012470156885683537,
                0.607053816318512,
                0.6071810126304626
            ],
            "bias": 0.0
        },
        "dense_output": {
            "weights": [
                17.890409469604492,
                17.915084838867188
            ],
            "bias": 0.0
        }
    }
}