{
    "model_arch": {
        "dense_E1": {
            "weights": [
                -1.6065644025802612,
                -1.4949498176574707,
                -13.51254653930664,
                -5.1177496910095215,
                -6.9575324058532715,
                -8.574910163879395,
                -10.148527145385742,
                -9.449026107788086,
                7.12517786026001,
                -6.375922203063965,
                -6.305209636688232,
                6.405301570892334,
                -8.06275749206543,
                1.9317760467529297,
                7.98461389541626,
                -5.177003860473633,
                -2.302554130554199,
                3.4663586616516113,
                1.235389232635498,
                7.585951328277588,
                -1.6963577270507812,
                -2.58913254737854,
                3.571411609649658,
                1.7868961095809937,
                -9.513091087341309,
                3.4885470867156982,
                3.596229314804077,
                -0.6730914115905762,
                -1.7967060804367065,
                -1.638537049293518,
                -3.558427572250366,
                3.7677876949310303,
                3.6139464378356934
            ],
            "bias": 0.0
        },
        "dense_E2": {
            "weights": [
                0.0340060219168663,
                3.497040033340454,
                1.9932953119277954,
                3.380437135696411,
                1.9666376113891602,
                1.0707876682281494,
                6.526007175445557,
                1.6697856187820435,
                0.3967171907424927,
                3.3600168228149414,
                0.022879449650645256,
                6.192627906799316,
                2.3442792892456055,
                0.30001068115234375,
                0.021169746294617653,
                0.02074386179447174,
                0.021228056401014328,
                0.02097954973578453,
                0.021908944472670555,
                0.019075440242886543,
                1.821399450302124,
                0.01450793445110321,
                0.021039297804236412,
                0.020744293928146362,
                0.020744293928146362,
                0.020157290622591972,
                0.02190936543047428,
                0.02190936543047428,
                0.01780385710299015,
                1.8193020820617676,
                1.8192734718322754
            ],
            "bias": 0.0
        },
        "dense_output": {
            "weights": [
                16.18695640563965,
                17.212339401245117
            ],
            "bias": 0.0
        }
    }
}