{
    "model_arch": {
        "dense_E1": {
            "weights": [
                -1.923987865447998,
                -1.8512184619903564,
                -2.7309467792510986,
                -1.422514796257019,
                -2.0703320503234863,
                -1.4310344457626343,
                -0.7506040930747986,
                -0.6830313205718994,
                1.6115930080413818,
                -1.154410481452942,
                0.03692571073770523,
                1.0723471641540527,
                -1.0116790533065796,
                1.0985573530197144,
                1.6371413469314575,
                -1.1518595218658447,
                0.6031201481819153,
                -0.1860625445842743,
                -1.0576062202453613,
                1.905336856842041,
                -0.007461209781467915,
                -1.1165109872817993,
                0.762342631816864,
                1.9585367441177368,
                -0.46389663219451904,
                0.01340293325483799,
                -0.1881028413772583,
                -0.8959730267524719,
                0.13876566290855408,
                0.4816526770591736,
                -0.6479436755180359,
                1.0655218362808228,
                0.9820190072059631
            ],
            "bias": 0.0
        },
        "dense_E2": {
            "weights": [
                0.004810528829693794,
                0.553936779499054,
                0.03930722177028656,
                0.007248332723975182,
                0.003289569867774844,
                0.003230712143704295,
                1.13654625415802,
                0.003321188734844327,
                0.003259227378293872,
                0.4829866290092468,
                0.0039040802512317896,
                0.5112231969833374,
                1.3336659669876099,
                0.0028082423377782106,
                0.0027804223354905844,
                0.0029040630906820297,
                0.0029621440917253494,
                0.002934339689090848,
                0.003172921249642968,
                0.002701888792216778,
                0.1942739337682724,
                2.0238541765138507e-05,
                0.0026948959566652775,
                0.002904508262872696,
                0.002904508262872696,
                0.002786371624097228,
                0.0031734141521155834,
                0.0031734141521155834,
                0.002412864938378334,
                0.19210077822208405,
                0.1916104257106781
            ],
            "bias": 0.0
        },
        "dense_output": {
            "weights": [
                15.186156272888184,
                14.343279838562012
            ],
            "bias": 0.0
        }
    }
}