{
    "model_arch": {
        "dense_E1": {
            "weights": [
                -2.778874158859253,
                -2.4461452960968018,
                -3.419434070587158,
                -1.9207556247711182,
                -2.9722135066986084,
                -2.422802209854126,
                -1.5136809349060059,
                -1.2690147161483765,
                2.735556125640869,
                -0.6263584494590759,
                -0.5014449954032898,
                1.8370126485824585,
                -1.7017134428024292,
                2.199090003967285,
                0.6195873618125916,
                -1.187151312828064,
                0.18280941247940063,
                0.5831400752067566,
                -0.2612510621547699,
                1.7924929857254028,
                -0.22648711502552032,
                -1.0326370000839233,
                1.1670141220092773,
                0.4141419529914856,
                -1.5392268896102905,
                0.3816920220851898,
                0.7010440230369568,
                -0.656204879283905,
                -0.45903342962265015,
                -0.6012150049209595,
                -0.34080979228019714,
                1.0550434589385986,
                0.7925329208374023
            ],
            "bias": 0.0
        },
        "dense_E2": {
            "weights": [
                0.0004625052970368415,
                0.3915213644504547,
                0.11797033995389938,
                0.2694837152957916,
                -0.0,
                -0.0,
                0.7069011330604553,
                -0.0,
                -0.0,
                0.6913883686065674,
                0.001304401084780693,
                0.5322943329811096,
                0.7727890014648438,
                -0.0,
                -0.0,
                -0.0,
                -0.0,
                -0.0,
                -0.0,
                0.0018369370372965932,
                0.15566249191761017,
                -0.0,
                -0.0,
                -0.0,
                -0.0,
                -0.0,
                -0.0,
                -0.0,
                0.0011116531677544117,
                0.156083881855011,
                0.15606826543807983
            ],
            "bias": 0.0
        },
        "dense_output": {
            "weights": [
                14.675664901733398,
                14.51237678527832
            ],
            "bias": 0.0
        }
    }
}