{
    "model_arch": {
        "dense_E1": {
            "weights": [
                -1.8582146167755127,
                -1.7730653285980225,
                -2.6121604442596436,
                -0.8547669053077698,
                -1.693833351135254,
                -1.1223199367523193,
                -1.3024747371673584,
                -1.0089893341064453,
                2.5654284954071045,
                -0.5298038721084595,
                -0.4724239408969879,
                1.7452253103256226,
                -1.0113086700439453,
                1.8876625299453735,
                -0.0928172692656517,
                -0.9155364632606506,
                -0.1754905730485916,
                0.6304052472114563,
                -0.45695850253105164,
                2.0257723331451416,
                -0.04836897924542427,
                -0.9319512248039246,
                0.6940326690673828,
                0.3804813623428345,
                -1.6350923776626587,
                0.1793077439069748,
                0.7316890358924866,
                -0.7513163089752197,
                -0.15814702212810516,
                -0.5714641809463501,
                -0.3616226315498352,
                0.8860910534858704,
                0.6058685779571533
            ],
            "bias": 0.0
        },
        "dense_E2": {
            "weights": [
                0.0031097063329070807,
                0.3190734088420868,
                0.2264702469110489,
                0.16562657058238983,
                0.002130322391167283,
                0.0016134153120219707,
                0.4272475838661194,
                0.001835216418839991,
                0.001345090800896287,
                0.3016884922981262,
                0.002800764050334692,
                0.2527967691421509,
                0.9115633964538574,
                0.00048681223415769637,
                0.0003477728459984064,
                0.0005424187402240932,
                -0.0,
                -0.0,
                -0.0,
                0.0027047733310610056,
                0.1594238132238388,
                0.0014696645084768534,
                0.00012793693167623132,
                0.0005424737464636564,
                0.0005424737464636564,
                -0.0,
                -0.0,
                -0.0,
                0.002456607995554805,
                0.1578383445739746,
                0.15769337117671967
            ],
            "bias": 0.0
        },
        "dense_output": {
            "weights": [
                15.190892219543457,
                14.298547744750977
            ],
            "bias": 0.0
        }
    }
}